58 50
水果 -0.016398212 0.010616156 0.006518541 -0.0025766026 -0.0022491403 0.0143305175 -0.016931059 0.00812046 -0.012325022 -0.016539887 0.0011183291 0.019459818 0.009467557 0.010939951 0.008803353 0.011412918 0.00064263644 -0.015508735 0.013333719 -0.0017411212 -0.00025959368 -0.0056024035 -0.01332723 0.017138606 0.012239964 0.0058334144 -0.0034575837 0.012702892 0.0013554513 -0.0026906058 -0.0018266214 -0.010604492 -0.01661401 0.0029613369 0.015515336 -0.017250324 0.014204143 0.012328516 -0.008972335 0.0056757987 -0.012974882 0.010780633 0.009040527 -0.005809731 -0.01755091 0.018911853 -0.0014071128 0.01651643 0.0076331086 0.010846129
苹果 0.010396868 -0.012622853 -0.0053252666 -0.0015068838 0.00025811073 -0.018463623 0.0016075203 -0.013782398 0.009400692 0.0070437784 0.016968768 0.01014118 -0.0053468957 0.019112676 -0.003468278 -0.0069466983 0.016389232 -0.0057492834 -0.017114758 -0.0010622707 0.011725661 -0.012838525 -0.0019555574 -0.014699399 0.008339713 -0.0010013635 -0.0064489585 -0.011039712 0.0021887354 0.0065747905 0.017770287 -0.0024524855 -0.013939696 0.013888192 0.0052020745 0.008155234 -0.016245404 -0.008329281 0.010654657 0.013690341 -0.00225413 0.01256404 0.014629628 -0.004483061 0.015734829 -0.008526864 -0.009946028 0.008117762 0.005935835 -0.014845265
的 0.013311096 -0.0123668425 0.0123684965 -0.019673686 0.012104053 0.0112966625 0.010922733 0.0066221887 -0.0014610123 0.007932965 -0.008901917 0.011619706 0.0022558076 -0.0012881113 0.0003137111 0.0026776951 -0.018303 -0.014973928 -0.010271691 -0.015319893 -0.0025353618 0.0063410373 0.00577004 -0.0009915477 0.014882463 0.0025598533 -0.01649011 0.010386015 0.0026017549 0.005307757 0.0028378945 0.0022947309 -0.016588243 0.0028238783 0.011789704 -0.007832746 0.0040537175 -0.019369153 -0.0062630735 -0.00235831 0.01961564 -0.0112197865 -0.008244285 -0.0036874095 0.019649437 0.013987329 -0.018214801 -0.009916059 0.013178667 -0.018005915
香蕉 0.0142367 -0.008952392 0.016874406 -0.008285057 -0.0023689328 0.0064337775 -0.015148258 0.002351485 -3.2721455e-05 0.011189389 0.019907085 0.0068399017 -0.0036356938 -0.003360953 -0.0031380805 0.012635609 -0.007010791 -0.013800763 -0.0067158784 -0.019062977 -0.015952196 -0.01672208 0.01055482 0.0090807825 0.008444016 -0.0016852528 0.008942842 -0.013693933 0.01564979 -0.00010493495 0.017632024 -0.013858992 -0.00024665473 0.008253797 -0.00017661403 -0.0021797416 -0.013438246 -0.0053223856 -0.010505005 -0.007816385 0.007658114 0.005382931 0.0048288894 -0.005687953 0.01830934 -0.016535895 -0.0059139556 -0.01472048 -0.006141743 0.018222835
很 -0.0053164745 0.016207995 3.0434942e-06 0.008012313 -0.0016010695 -0.009423332 0.010333377 0.018803166 -0.009626734 0.0109186955 -0.009569969 0.0089753335 0.0116800135 -0.0016789146 0.009485093 -0.009182646 -0.016604602 -0.016509015 -0.0023369435 0.01637589 -0.015114375 -0.0020277929 0.007804426 -0.011830122 0.009417058 -0.0076287007 0.012678482 0.0030190304 0.0017345204 -0.013081977 -0.001342299 0.014399601 -0.019474903 0.010788421 -0.00025269153 0.008896094 0.0065917526 -0.003106503 -0.0076331943 0.005315524 -0.014170416 0.003581108 -0.015666531 0.0059544384 0.0049648024 -0.016595809 0.010671785 -0.002896944 0.011882267 -0.01848841
我 -0.012827823 -0.0003510606 -0.012417475 -0.006848547 0.006512102 -0.014343778 0.0069357688 -0.015829002 -0.0131891845 0.0033513533 0.011753917 -0.013034946 -0.007996897 0.01722604 0.019607896 0.003225249 -0.0020478966 -0.0064016934 0.0043881508 0.0038294399 -0.008275466 -0.019233035 -0.014136205 0.018292759 -0.0028717725 -0.000621884 -0.0010726732 0.011237906 -0.017581824 -0.016820112 -0.008859773 -0.0004779848 0.0066392263 -6.78996e-06 -0.0023496987 0.01765175 -0.013559986 0.0026105265 0.0017506895 -0.0007756286 0.0123999985 -0.00915675 0.018583858 -0.0067797997 0.0016893308 0.00083508017 0.014287025 -0.0020602045 -0.0084068095 -0.019359335
吃 -0.0054024835 0.012929785 -0.019573215 0.01587067 0.0018349288 -0.014443295 -0.007998638 0.0021758233 -0.007529818 -0.01575864 0.0065878048 0.006999876 -0.015275956 -0.008636728 -0.0102338465 0.006418025 0.009298517 0.008844273 0.017538913 0.010820187 -0.0071963253 -0.015839795 0.004429354 0.016732939 0.019314822 -0.0108747445 -0.010375721 -0.018603941 -0.014570023 0.0021667485 0.0019123735 -0.00512497 -0.007641319 0.013416794 -0.0015895307 0.012296923 0.01850216 -0.007551088 -0.011913627 0.018217368 0.005572083 -0.008337699 0.005186177 0.00061523385 0.016160283 -0.009797183 0.019848814 0.017835801 -0.012690958 -0.013638335
喜欢 0.0014027458 -0.018390562 -0.007967688 -0.0026200588 0.018844139 0.019560682 -0.014028679 0.015623946 -0.016459519 0.009823455 0.013832119 0.015735652 -0.011025003 0.015954426 -0.015385587 0.000661766 -0.0010829297 -0.0076048244 -0.01922979 0.010984961 -0.0066400333 0.006297861 -0.0038004443 -0.0050140107 0.015744314 -0.016186006 0.00963279 0.0097846445 -0.0050210743 -0.009584954 -0.019731551 0.017621217 0.017826455 -0.0101617575 -0.018728733 -0.014978591 -0.017361319 0.012952984 0.015690014 -0.013785574 0.009972009 -0.012740352 -0.0049416698 0.003942351 0.008759159 0.014911772 -0.017956201 -0.011797709 -0.008608147 -0.007744212
甜 0.01988447 0.010771312 -0.0071447147 0.018888889 0.00013599248 -0.00020930395 -0.002847281 -0.014216369 0.017092636 -0.019784724 -0.013017682 -0.010534581 -0.008887192 -0.01435269 -0.019287558 0.007030955 0.018946055 -0.015426119 -0.008243988 0.0004903436 0.017040947 0.0074799983 0.010364436 0.0032407464 -0.002753929 -0.01190326 0.014796013 0.012099503 -0.019361928 0.008462193 -0.016491398 0.009671214 0.012815332 -0.014217862 -0.0025818278 -0.014887356 0.0026233203 0.016567955 -0.016801024 -0.0038661014 0.01921992 -0.007717092 -0.013898642 -0.0005287257 0.00012993222 0.0065121874 -0.006992812 0.01886806 0.0011778423 -0.00884689
红色 0.01846016 0.016921664 4.8308843e-06 -0.019136027 0.0040167165 0.002075746 -0.014224754 0.0054557016 0.013521015 -0.015880244 0.0089433845 -0.01420872 0.009981849 -0.003071788 -0.019739436 0.01873371 -0.013288721 0.0035760084 -0.01289181 0.01733619 0.00942738 0.01196459 -0.0029246227 -0.0012790812 0.0057169595 0.011280647 0.01399202 -0.01944118 0.0063199378 -0.015613079 -0.008396176 0.013193429 -0.010134842 0.0121081015 -0.001461862 -0.010696724 -0.006701319 0.00090503396 0.010599657 0.00440044 0.017476596 0.014840531 0.010478931 0.004084522 -0.008319814 -0.0036308556 -0.01509824 -0.004688496 0.017224986 -0.0031416656
是 -0.015436376 0.0058610295 0.018663073 0.014617752 -0.0088947425 -0.0019694495 0.0010516355 -0.009985638 -0.009470961 -0.010644197 0.019776803 0.010061601 0.013749391 0.012943345 0.018489972 -0.015765024 0.015342384 -0.017799763 -0.0011142379 0.0038640483 -0.0058189966 -0.014371309 -0.01258036 0.0131423455 -0.006762832 -0.0076021757 0.017178366 -0.014350546 0.016466808 0.016762473 0.0040456643 -0.013273924 -0.013936061 -0.00833038 0.0030688457 -0.013900414 -0.0018369842 -0.015862023 0.0015707619 -0.019038878 0.008571176 -0.017600263 -0.011740775 -0.013046291 0.013193718 -0.017953653 -0.0025572195 0.0040872097 0.00092770037 0.0069339857
都 0.012192214 -0.004486826 0.013215561 -0.007380914 0.019701164 5.2731375e-05 0.009214624 0.0149974385 0.011586762 0.013910184 0.0014547713 -0.01802236 -0.00026311935 -0.012451602 0.015695184 -0.010537491 -0.010812011 -0.010536962 0.0056805694 0.0029393483 0.018003622 -0.003544815 -0.009057787 -0.018004587 -0.019158253 -0.005137043 0.017316654 0.00085546117 0.015444696 -0.01610349 -0.016111422 0.013419697 -0.01596641 -0.017503005 -0.003841754 0.017070213 0.0075080725 -0.016631952 0.013480323 0.0141964145 0.012223667 0.016405217 -0.009795692 0.019253515 -0.0072820084 0.012055409 0.0035618253 0.011860545 0.0054503633 0.0053172116
买 0.0046198326 0.010951 0.009566262 -0.014696387 0.01326228 0.0012389525 -0.0071445536 0.00062206225 0.018512255 0.014237 0.0133504 -0.0013448164 0.011395914 -0.004405238 0.0075247046 0.005576512 -0.009918616 -0.009783785 -0.01760253 -0.014345889 -0.0026815662 -0.0011299942 -0.013737295 -0.0032862457 0.004624252 -0.010793648 -0.00626908 -0.0054284045 -1.2293385e-05 -0.0053689256 0.0095765805 -0.0069281254 -0.0028299126 -0.00455411 -0.012715813 0.0073926365 -0.010663079 -0.008539008 0.011805113 0.018164067 0.007019046 0.016809938 0.014606634 -0.00077483186 0.010734503 -0.006985851 -0.0013514907 0.0018889293 0.018657813 0.013657528
新鲜 -0.0004236493 0.0059826933 -0.011785397 0.012036462 0.0022326105 0.0012433961 0.010468879 0.0053508137 -0.017274335 -0.008597199 -0.012932657 0.009566385 -0.018503314 -0.011638125 0.0039589247 0.007804619 0.0001411601 0.014086072 0.016565073 -0.014566327 0.017903768 0.0043561338 0.005131801 -0.016077897 0.005255872 0.009005187 0.0034367337 -0.016722005 0.0007729818 0.017267432 0.008912118 -0.014368296 0.01827017 0.018683968 -0.01316669 0.012084993 -0.0037734008 0.0034416988 -0.0021332698 0.011496144 0.019979749 0.01197268 0.017646769 0.017767264 -0.016513802 -0.009810988 0.009177116 0.0038970774 -0.017807962 -0.016369505
好吃 0.0009123947 0.004462493 -0.013213288 -0.013250512 -0.014586021 0.0025663855 -0.019788127 0.0030083584 -0.0010638182 -0.0014592909 0.0071098628 0.0011476732 0.009128068 0.0107856225 0.016781256 0.011997385 0.0007678051 -0.00061808043 -0.0107557 0.0041082297 -0.014492215 0.01711069 0.013563956 -0.015198203 0.011931059 -0.015343551 0.009052234 -0.016508348 -0.00066614297 0.0061418056 0.00919465 -0.003172377 0.016659549 0.011288763 -0.011649332 0.006906461 0.009188625 -0.007089992 0.00945885 0.01620305 0.012855833 0.010759887 0.0057983752 -0.00912718 0.011692243 -0.0053412477 0.0015829247 -0.007001228 -0.00716068 -0.014004165
树 0.01847415 -0.014297805 -0.016435975 0.017377764 0.002411769 -0.0026519105 0.009365094 -0.0046279887 -0.0150445765 0.009056659 -0.012997376 0.0023494198 0.017996505 0.017660055 -0.005486496 0.0112046935 0.0046349633 -0.0012441229 -0.014483181 -0.004866598 0.0060320194 0.019209696 -0.020140596 0.008744866 0.014374148 0.018004604 -0.0027991864 -0.015391908 -0.00936996 0.0139734885 0.015221665 0.00547024 -0.015377112 -0.014805628 -0.00085361226 0.003535345 -0.01875112 0.0069055897 0.0017807031 -0.01926691 -0.015934743 -0.0016061898 0.0094216075 0.013025325 -0.0028295992 -0.008283211 0.018934632 -0.001121492 -0.007060296 -0.002585353
含有 -0.01948951 -0.008135149 0.00071861147 0.016729178 0.0097020175 0.011143397 0.0016729407 -0.015558453 -0.004471596 0.01981185 -0.018136855 0.015336954 0.007403188 -0.008444174 0.011240594 0.013421237 -0.018173221 -0.015996676 0.0065907165 0.019941783 -0.019186689 0.006423273 -0.014735882 0.0061153905 0.0052805496 -0.0163961 0.0073238136 0.015727425 0.014394251 -0.018960375 -0.009989329 -0.01034271 -0.0020416486 -0.0140154455 0.01412281 0.0111462325 0.012309367 -0.012419612 -0.019435283 0.016464107 -0.00827179 0.0063758227 0.016763192 -0.018609699 -0.0197872 -0.019809043 -0.01357483 -0.017568165 0.013014253 0.0041382234
健康 0.019250916 0.011985688 0.01860311 -0.010523839 -0.00841446 0.01399019 -0.010271409 -0.017628852 0.006754355 0.011999916 0.018716086 0.017183833 -0.015155012 0.010950692 0.013859935 0.007987396 0.01279375 0.013360849 -0.0022161833 -0.018375298 -0.0018046356 -0.0120057445 -0.015572306 -0.015001722 0.008042961 0.00013677309 0.0016977448 0.009736332 0.0018944619 0.0051466827 -0.016524019 0.014062383 -0.0021286157 -0.013680151 0.012527442 0.009398919 -0.017899083 -0.012454648 -0.019355658 -0.009060284 -0.015912494 0.008507376 0.0010456825 0.019229192 0.009939791 0.004448527 0.00048139048 -0.01767164 -0.01706089 0.0045647416
店 -0.019862583 -0.018596258 -0.011088778 0.015342426 -0.0015253761 0.00829729 -0.0037045057 -0.013025381 -0.00541627 -0.016581839 0.010908267 -0.012313154 -0.004952389 0.019635916 0.0037457824 -0.0016438295 0.0019367717 0.011038604 -0.009894375 0.0056211567 0.0148451645 0.0026166732 -0.002476063 -0.014070255 -0.009592746 0.017969638 0.0018008661 -0.007991067 -0.0035247505 0.0029840814 0.0016715451 0.008069141 -0.009896365 0.006309051 -0.0022684762 0.017715108 -0.013777311 -0.014538577 -0.0015747566 0.0004654881 0.007822459 -0.0035657443 0.017216107 -0.0011192913 -0.014931377 -0.015269116 0.019266926 -0.014140981 0.018243195 -0.009083003
在 -0.016143158 -0.008092301 0.0046481877 -0.0028528608 0.011527063 0.0043032863 -0.004195647 0.0054781823 0.018555779 -0.003820059 -0.013819939 -0.0033743838 0.01355537 -0.010919013 0.017910302 0.003573568 0.004315055 -0.0076597854 0.016662268 -0.018454077 -0.008129557 -0.003670209 -0.0012493827 -0.0008954857 -0.013434955 -0.010954378 -0.0159152 0.002676969 -0.0064088437 0.0025422152 0.0038868594 0.008276724 0.0016748264 0.0064001284 0.0034307523 0.0061258823 0.0045033763 -0.007832218 -0.010262332 0.011644892 -0.0060202903 0.002137752 -0.011470649 -0.0027112607 0.0011120553 0.004819053 0.001480851 -0.0049709943 0.01876945 0.00017654462
有 0.012310566 0.009306062 0.0024130011 0.015437705 -0.014745006 0.016771384 0.01386983 0.00024771845 0.009138538 0.00060844416 -0.0091886325 0.012200044 -0.010145211 -0.0071418816 0.0007782006 0.013523098 -0.004471855 -0.00051892584 -0.018384807 -0.015236989 -0.017926283 -0.017329104 0.014498602 0.013867833 0.013349704 -0.01770734 -0.016780537 -0.00892381 0.0024013296 -0.006756208 -0.00040983575 -0.012997586 0.009088005 -0.0071088425 -0.017341062 0.009732043 0.016095111 -0.019731075 -0.0025365993 0.013107131 0.008423815 0.014385329 -0.002964716 -0.0052085295 0.008263821 -0.013868155 -0.010139826 0.0044045746 0.006974493 -0.015332378
很多 0.00037858 -0.005470483 5.748753e-05 0.018309668 -0.016887585 0.019767893 -0.0020491988 0.010860913 -0.003085106 -0.007674615 0.010807785 0.0075480915 -0.014223871 0.00830357 0.010095453 -0.0044867713 0.017092317 0.005583884 -0.0066554733 -0.019504422 0.0070420895 -0.011695243 0.010183263 0.0010399212 -0.001224047 -0.013455953 0.008519003 -0.013363459 -0.0034284478 0.013416363 0.0168655 0.019652113 0.018291922 0.002319632 -0.011959992 0.013580917 0.012021027 0.01949967 0.005999487 -0.014284972 0.0001667257 -0.0020172931 0.01386237 -0.0042894348 -0.00688196 -0.016830511 0.013497388 0.010365873 -0.018303575 -0.0027287167
了 -0.00084453507 -0.0012367535 0.016756542 -0.013932724 -0.0077486825 -0.012837111 -0.010303305 0.016264355 0.017546779 -0.01832275 0.005369211 -0.010655339 -0.012318541 -0.008229829 -0.0122328745 -0.0003806924 0.019883456 0.0034099054 0.008942925 -0.00021459398 -0.019433608 -0.01678736 -0.009285378 -0.010197935 0.013697984 0.013735289 0.014215182 0.005500755 0.0021438817 0.0059732725 -0.0036641723 0.006781101 0.011743594 0.010607958 0.004562661 -0.017623508 0.008939363 -0.005450782 0.009749912 0.0016302225 0.015304925 -0.0064380304 0.01744966 0.013726515 -0.006712553 -0.00078944344 0.0013859675 0.010857147 0.007578114 0.014003189
黄色 -0.005139974 2.5049081e-05 -0.0026931148 0.016276667 -0.007726473 0.0033638224 -0.0153172305 0.013995897 -0.0047220597 -0.0064631216 0.0033804122 0.00016834501 0.013966683 0.0014710148 0.0007298266 -0.015919194 -0.01906187 -0.004282884 0.019779325 0.016775519 0.0050861076 0.0051430874 -0.004570566 -0.012979705 -0.019378569 -0.0063670096 -0.00717255 -0.01248483 -0.009729609 -0.019122386 0.0044862763 0.017257975 0.0075478917 -0.0018425073 -0.00327431 -0.0075488086 -0.014377708 0.0036856807 0.0026597267 -0.01955012 -0.0032577827 -0.008700745 -0.012813009 0.008136588 0.0010156033 0.0052201273 0.008718667 0.019495096 0.012321079 0.004713632
每天 0.015122628 -0.0009490818 0.01940924 0.010481637 0.0060642 0.016052136 0.0005458622 0.0088441335 -0.008678165 0.018401477 0.0049487073 0.011347101 -0.0015870726 0.014748565 -0.017035527 -0.015434184 0.00035876318 0.009200669 0.012357913 -0.0023484898 0.0059430273 0.0019737268 0.018358892 0.0061966027 -0.0031484587 0.018816069 -0.015648473 0.019343287 -0.0139403865 -0.008483946 0.012900042 0.009356124 0.018693667 0.010150237 0.0055058356 -0.006109262 -0.019797528 -0.01519271 -0.008090585 -0.0183038 0.00039618745 0.011152369 0.018756818 -0.00045109825 0.0149581665 0.019381054 0.014498193 -0.0012002096 -0.0068859616 0.019044483
地区 -0.010355406 -0.0036025373 -0.017016154 0.011763769 0.0061035356 -0.016667206 -0.011173062 0.002200838 0.0015367453 0.012043709 -0.00936365 0.017057411 -0.0021519386 0.013030673 -0.010426848 -0.0185178 -0.017783567 -0.0052501154 0.018070918 -0.017996816 -0.005233846 -0.015740523 0.017100574 0.007051292 0.010682546 0.008510892 0.0063821897 0.010876384 -0.019752918 0.014605459 0.009696351 0.009585639 -0.004384144 0.012200941 -0.00471138 -0.01808678 0.016269749 -0.010811679 -0.015881218 0.0049609146 -0.010565257 0.014417181 -0.0020227479 -0.019838633 0.018028159 0.00056138757 -0.009395839 0.007263955 0.0013464907 -0.018964756
热带 0.010440579 -0.004083792 0.0081232805 0.015827889 0.0044967737 0.00683647 -0.01005268 -0.010426684 -0.0035621836 0.013854822 0.00095886254 -0.005954919 0.011147508 0.014298951 0.01599523 -0.007950669 0.008547175 0.003377035 -0.0021229496 -0.0039951643 -0.015504622 -0.0093111405 0.001834516 0.015610936 0.01513526 -0.012422364 0.0073528998 -0.016658047 0.006720938 -0.0064266496 -0.0018105305 0.008818981 -0.0031458223 0.012719493 0.0013634372 0.019900778 0.005537678 -0.008454411 0.010933758 -0.003494354 0.0015824178 -0.014375453 -0.014697729 0.0029610156 -0.012611798 0.019882169 0.014460755 0.008473518 0.009616158 0.0035835914
生长 -0.017579034 -0.00449101 -0.00013731624 0.016459731 -0.011074537 -0.00027543455 -0.006395334 -0.014629505 -0.01610274 -0.005482682 -0.016673906 -0.017228112 -0.0060072914 -0.011715758 0.0021878853 -0.019233149 -0.007888816 -0.0022355707 0.0184289 0.0054338756 0.015291051 -0.0064742696 -0.0023696434 -0.0032704184 0.015894784 0.018407669 0.018753372 0.009875007 -0.00013110711 0.0016228596 0.019374276 -0.008660695 -0.006375857 0.016199589 -0.004570355 -0.010598954 0.0022111768 -0.0073437104 0.015674759 0.016636416 -0.007626301 0.0013929048 0.019817688 0.009738609 -0.011487331 0.003417594 0.005054592 0.0064777164 -0.018827558 -0.0082746
果实 0.014204986 -0.010526308 -0.008044538 -0.007216323 -0.012837065 -0.0138809085 -0.0061882436 0.015022911 -0.020077538 -0.00873691 -0.017578427 0.0025918894 -0.009997208 0.0118543375 0.0034423673 0.011327764 0.0054555736 -0.0026656508 0.014346229 -0.0008603742 0.01806937 0.019720884 0.0033330678 0.006927336 -0.0094794985 0.012613756 0.0070217946 0.015981384 -0.009455173 0.01145523 -0.0011079549 -0.012516907 -0.013292988 0.002702606 -0.0072834836 -0.015872676 -0.0029822995 0.005888551 -0.007193896 0.018427808 0.01124183 0.00066999136 0.017681757 -0.0026524768 -0.01452673 -0.018619055 0.017694972 0.018688234 0.009719149 -0.016101813
结出 -0.008275196 -0.018576933 -0.017900702 -0.010247403 0.0029383218 -0.017552927 0.019298285 -0.0017891871 -0.009600938 0.00048822587 0.011755835 -0.0073246416 -0.018072415 -0.017692585 0.014149051 -0.015659979 0.0055677295 -0.0048860833 0.010966287 -0.017459545 0.015901128 0.007766911 -0.002237633 -0.0117728105 0.019435145 -0.007843615 -0.00018478569 -0.00432832 -0.010942605 -0.0034202496 -0.013821411 -0.01991048 -0.00854969 -0.015276759 -0.0034282622 0.014623611 -0.013640348 -0.020362664 -0.015545992 0.00043586316 -0.008813599 -0.00024823207 -0.018369112 -0.006766002 -0.0036543387 -0.0028436915 0.0022786597 0.011582203 -0.0010161395 0.0135458335
各种 0.0011777732 -0.00968058 -0.01081622 -0.0071708886 0.0040144254 -0.010378153 0.016488127 -0.00084111106 0.014369109 0.0072480035 -0.0066626067 -0.010751533 0.009735424 -0.0065549226 -0.010052718 0.01724084 -0.0006749687 -0.018295791 -0.00035525276 -0.0014738501 0.014486414 0.008376627 -0.012506019 -0.013907485 0.0044348403 -0.018085254 -0.007094614 -0.0145396525 -0.019298177 0.016663428 -0.016454663 -0.019681977 0.017190376 -0.01221695 0.0126772635 -0.018711451 -0.013893498 -0.015783507 0.008303615 0.0049426467 -0.0008367251 -0.01022219 -0.016132412 0.0026335905 -0.010865515 0.0036189442 0.0076679373 0.014198538 -9.757019e-05 -0.019986138
里 -0.008852334 0.014006505 0.0013863769 0.004836007 -0.0015929911 -0.0136310505 0.015777683 0.010914947 0.019628508 0.014127607 -0.008409847 -0.009708411 -0.010028634 0.016887292 0.0022702212 -0.001892381 0.018822169 0.0038658127 0.01632265 0.019530497 -0.016951289 -0.005686154 0.009230243 0.012610745 -0.013710145 -0.0072490484 0.0020900872 0.011837388 -0.015635015 0.004025407 -0.008097107 -0.011395584 0.0004905329 -0.0031912865 0.005394018 -0.007350459 0.012921029 -0.01715525 0.014482507 -0.018803563 0.009605851 -0.0061690486 -0.0043990114 -0.019313205 0.008061163 -0.013452441 0.006513037 0.00933158 0.013997389 0.00812964
有益 -0.007929109 0.009529506 0.01309594 -0.0073176264 -0.015008791 0.015604648 -0.014128316 0.0037956154 -0.010587017 -0.015030769 0.01110174 -0.014201917 0.006773054 0.007755007 -0.017592778 -0.013058833 0.0118074855 0.00027258787 -0.015144861 0.019716064 -0.009417401 -0.019936066 0.016912514 -0.019327026 0.002181934 0.019733472 0.003157627 0.0033687719 -0.0045127156 -0.01495952 0.002924929 0.015918048 -0.016420601 0.0152813485 -0.003354522 0.0015199108 -0.013368068 0.0047997544 -0.012733204 -0.009029912 0.008909071 -0.017923577 -0.0020244238 0.0037907087 -0.014721031 -0.008209546 -0.006180118 0.006630561 0.019099822 0.013479935
高 -0.01241777 -0.019411128 -0.017775672 0.0037862854 -0.013635843 -0.0107819615 0.013806675 0.015020406 0.013448127 -0.009985291 0.0048903637 0.0046391906 -0.012538299 0.0023841392 0.0010305209 -0.0041918233 0.010187089 0.006915317 0.0012097214 0.009148319 0.010405395 0.0025127595 -0.009520706 0.010399053 0.008991824 0.019436415 -0.013923498 -0.0032834955 0.016862212 0.00042894532 0.01775758 -0.01938497 -0.018716613 0.012039914 -0.0056144125 0.00088144396 -0.0029364855 -0.0039017622 0.017522825 -0.016235616 0.010988646 0.0157557 0.006564119 -0.0042754947 -0.013674682 0.007348626 -0.0010496452 -0.013837872 -0.0053804466 0.018473579
价值 -0.009354108 -0.012952888 0.007384787 -0.012085204 0.016942795 0.014283154 0.019173712 0.01654832 -0.010382599 -0.011653199 -0.0063243033 -0.0010570253 0.015240114 0.009499071 0.005801149 0.015164903 0.005866379 -0.005094463 -0.003553609 0.000700423 -0.016522445 0.009551075 0.005900378 0.009313846 0.0017841624 0.01140317 0.018175246 0.0027207811 -0.0023796584 -0.015873156 0.011207084 0.016185582 0.007825377 0.014914151 0.0144767035 0.011893069 0.00011715285 -0.01632899 -0.019873133 -0.01164062 -0.0025949592 0.009940761 -0.0013247808 -0.019087516 -0.011681303 0.0191954 0.019725693 -0.0045799334 0.012399108 0.008641797
营养 0.01727396 0.015466614 0.0052131377 -0.0042727957 0.0051126187 -0.007221701 -0.0062184995 0.0044400143 0.0027801376 0.0030276335 -0.00451686 -0.00346576 -0.019531528 0.0043287533 0.0030577565 0.017520996 0.00025982998 -0.0014339348 -0.017454915 -0.012005708 -0.006624389 -0.005067127 -0.005678047 -0.004144591 0.010956677 -0.014742872 -0.0065941224 -0.013507495 -0.0078354385 0.0072219386 -0.01803027 -0.0062769596 -0.019161317 0.018405586 0.009140196 -0.010120908 -0.012072879 -0.016182108 -0.0011172502 0.010233333 0.0034842 0.015402828 -0.0059228595 -0.00897894 -0.00093723275 -0.011929405 0.019242814 -0.012407347 -0.0006248706 0.0008276642
成熟 -0.01768131 -0.0014393909 -0.0018097574 -0.009700139 -0.014752499 -0.018354557 -0.01973066 -0.0007774707 -0.016487086 0.018245459 -0.010217115 0.006176526 0.006918125 -1.9971867e-05 0.015317018 -0.015555448 -0.010539994 -0.010133764 -0.014584041 -0.008180243 -0.007436434 0.01047859 -0.008056205 0.015083676 0.0111479955 0.016037643 -0.015667047 0.0193525 0.0043085623 0.019284176 -0.005775294 0.018153144 0.003569706 -0.017003428 -0.0035988644 -0.014494901 0.01751229 -0.0081103025 -0.011108125 0.0021877503 -0.002818907 -0.016035005 0.012979742 0.013815691 0.009704708 0.004631837 -0.0037604987 0.0020278958 0.0009650959 -0.013569183
绿色 -0.016692672 -0.009952751 -0.0018115644 -0.013591656 -0.015691368 0.014022694 -0.005154548 0.003432624 0.00083239697 0.009249157 0.009580015 -0.0080296 0.013926031 -0.0049600075 0.013389273 -0.0037941616 -0.015509228 0.010270475 -0.018890887 0.010981865 -0.018368108 -0.011814975 0.0040535377 0.01775614 -0.0033348901 -0.015164991 -0.010574088 0.01578261 0.008921838 -0.016030814 -0.0045265104 -0.009365576 -0.0130199725 0.014163438 0.004675874 -0.012839819 0.0060510645 -0.0036841345 -0.017518958 -0.0019015401 -0.012470659 -0.010102499 0.015522344 0.008355482 -0.014673835 0.014054659 0.0031665708 0.015286058 0.010022914 -0.006662049
比 0.001459594 0.0011399117 0.008792124 -0.0100856405 -0.006537923 -0.010306099 -0.008239837 -0.013567212 -0.018626627 0.017510515 -0.017046124 0.015626198 -0.019911004 0.01127093 -0.0068485546 0.00075218576 -0.008628513 -0.000590605 -0.0019862317 0.0012046766 -0.004308817 0.0013422659 0.012878573 -0.002521015 -0.0052268067 -0.014757155 -0.0055004978 -0.015057225 -0.012887876 0.018050801 -0.016373152 -0.0007027383 0.013205809 0.018397782 -0.014082667 -0.01342521 -0.005086952 0.0019694516 0.01835541 -0.0115159955 -0.013322902 -0.009758926 0.015249719 -0.018840054 -0.0048471754 -0.015238669 -0.01350931 0.016989766 -0.019814856 -0.0073523885
最 0.016620215 0.0043266136 -0.017081432 -0.0014417057 0.018880736 -0.0039408174 0.0010704879 0.0013506499 0.0063412418 -0.012525089 0.013600572 0.019635778 -0.014215422 0.012789085 0.012771074 0.009763447 -0.005210374 -0.0013610935 0.0135783125 -0.013930871 0.013080836 0.016784344 0.0071777347 -0.006250089 0.002414044 -0.018038487 0.017265707 -0.0063760276 -0.017735204 0.0117641445 0.0063373605 0.004908444 -0.017933914 0.0100960275 0.0055388864 0.011741914 0.013096556 -0.011566205 -0.011597522 0.016991276 0.0012242077 -0.002430978 -0.008443297 0.0055228216 0.010154176 -0.019922951 0.0021619084 0.019814884 -0.008730804 -0.00873847
沙拉 0.015157078 -0.017534424 -0.0040187878 -0.0016889101 0.011990726 -0.014821995 -0.0027342564 -0.013874642 0.011495036 0.0051728105 -0.000107080654 -0.0041969107 -0.013868256 0.016981345 0.0059098066 -0.0071709664 -0.0034035323 0.008951152 0.008755025 -0.0015342803 -0.007966725 0.006312572 0.006261411 0.0040867324 -0.016907154 -0.001075241 0.004595665 0.0180182 0.00092326035 -0.0064027663 0.0021876162 -0.012860794 -0.016421605 0.007264342 0.019488826 0.013868219 0.0033662245 -0.018501306 0.019450374 -0.0019604578 -0.008335926 0.015792856 0.0100439545 0.0099304505 -0.008956715 0.019752791 -0.0017306282 0.0014347632 0.010149395 0.006353818
元素 -0.013108672 -0.008143689 -0.005422059 0.017847626 0.008766322 -0.005486535 0.009238634 0.00958178 -0.004426751 -0.003967046 0.01585467 0.0027059852 -0.014005897 0.008966439 0.0035932667 0.00023884172 0.009084149 0.015949832 -0.0068109143 -0.0031968562 -0.012506119 0.005601275 -0.0041936953 -0.0062696105 0.008356798 -0.0036230497 -0.001228811 -0.0025395595 -0.009835945 -0.015082226 0.013295663 -0.016321922 -0.0071922033 0.0070101325 -0.014778609 0.0062314803 0.009243053 0.006129457 -0.0078001767 -0.019079788 0.01564242 -0.0067355754 0.012705193 -0.0120997485 -0.013524082 0.011059756 0.017785402 0.014838971 0.0102237575 -0.010222099
钾 0.01657506 0.0063947397 -0.01303025 -0.0148526635 0.01504795 -0.009163655 0.010509624 -0.014542142 -0.008942717 -0.008762626 -0.008654136 0.007262522 0.016581446 0.01675413 0.009677837 -0.0120067885 0.018618224 0.001368818 0.0018125789 0.008112777 0.010653264 0.017915778 0.0030820963 0.004549188 0.010295062 -0.0097136665 -0.007519932 0.004909453 -0.017632905 -0.007289503 0.008851969 0.01913479 0.0007127483 -0.0037529212 -0.002409782 0.0074944887 0.0016750596 -0.019529726 0.001509266 -0.0039823977 0.008201825 0.0151568595 0.019002141 0.0043369248 -0.0055249655 -0.0023035174 -0.0127757415 0.017860152 0.0141507 0.014021949
维生素 -0.006894303 -0.007145123 0.014294465 0.0017674279 0.008266013 -0.00040556508 -0.002325576 0.0053305025 0.012443344 -0.006647883 0.012365219 -0.010143691 -0.0038346902 0.016581703 0.018240433 0.016917154 -0.0073825303 0.013619302 0.01741691 0.019153215 -0.019200759 0.009770034 0.01976108 0.010598559 -0.010512001 0.01052183 -0.0157222 -0.0008256684 0.005029011 -0.0018067148 0.008038336 -0.010386504 0.0041237334 0.0059011984 0.005353136 -0.008423532 -0.0077820565 -0.009795637 -0.0015289618 0.003484441 -0.005474396 -0.0035184077 -0.008431216 -0.011251546 0.006250261 0.012648042 -0.008317857 0.014526192 0.0029230923 -0.013310722
丰富 -0.005321984 -0.019716183 -0.01844324 -0.006577544 -0.0017598266 0.011862471 -0.014621188 0.013563093 -0.010610939 -0.014447328 0.008036262 0.011015126 0.004180106 -0.015373324 -0.0153790135 -0.0044103633 -0.0019741328 0.019885551 -0.008564199 -0.01230508 0.017850392 -0.013840284 -0.018976364 -0.0031157432 -0.0038688506 0.004759621 0.0151406815 0.017260902 -0.0084105525 0.019208984 0.0053071585 -0.01724587 0.017505705 -0.014453622 0.0035279656 0.01163467 -0.010047271 -0.009241389 -0.0009486618 0.015449962 -0.011016703 0.006564924 -0.001868319 -0.015528532 0.008453964 0.013283135 0.0030230554 -0.012887853 -0.01373584 -0.0030845806
多 0.00025992302 0.0019526487 -0.0101773525 -2.3163668e-05 -0.008112239 0.007308476 0.011696266 0.006091532 -0.02006105 0.019540923 -0.019021148 0.020082539 -0.018675623 0.00076491927 -0.01573315 -0.016222095 0.0073952894 0.008889379 -0.01536906 0.019121334 -0.007324167 -0.0073984424 -0.008333885 -0.0015636113 -0.012590456 -0.0029633217 -0.011407342 -0.018075917 -0.0053913724 0.0068736905 0.010528276 -0.005783537 -0.0071067237 0.01174609 0.007274278 0.013329591 0.016195856 0.012646909 0.017462403 -0.0032296153 -0.004071899 -0.0070970785 -0.010266048 0.009911127 0.008552852 0.012004529 -0.013112774 -0.00012302256 -0.011005514 0.01563513
需要 -0.009342952 -0.014412124 0.0029077807 0.015205424 0.016804742 -0.016289376 -0.0070610833 -0.013874553 -0.007878057 0.0012358385 -0.008753938 -0.017083809 0.0005158529 -0.017664528 -0.010829158 -0.02013963 -0.016424397 -0.0028147253 0.014023116 0.011048231 -0.016152106 -0.018767843 -0.006755839 0.006132536 0.010237659 0.013014038 -0.0061139027 -0.0134439245 -0.019091075 -0.014160329 -0.017357463 0.014498631 -0.009469733 0.013172252 0.0021808257 0.001631998 -0.0018388533 0.012406721 -0.018266926 -0.016278025 -0.0029995826 -0.004098806 0.0021886956 0.0094884625 0.003443878 -0.009723125 -0.006676458 0.010452457 -0.01180635 0.00012762789
生活 0.0015112923 0.009762799 0.008630355 -0.0014738567 -0.007516195 -0.0055427724 -0.0037307933 -0.011302709 0.0047464706 -0.011920593 0.005993049 0.0102545535 0.018468319 -0.014878095 0.010384813 -0.016701331 -0.006348361 -0.013197778 -0.013668618 -0.012798373 -0.018418234 0.01274267 -0.017902289 -0.0040353453 0.008479486 0.019933818 0.014341951 -0.01467062 0.019215968 0.0059444164 -0.0127817895 -0.0019114395 0.016594185 -0.0038323482 -0.012648748 0.015246102 0.018034108 0.018700963 0.01828161 0.015062896 -0.0016545656 -0.012069762 0.0053868145 -0.0113428775 -0.0012598834 0.0063033225 0.01825999 -0.008035076 -0.009676057 0.009303357
小朋友 -0.019723581 0.0026617574 0.009829483 0.0020256133 -0.0046026073 0.013107583 -0.0051880996 0.008408823 -0.0014414388 -0.018953754 0.0012084122 -0.017989594 0.017268632 0.004094971 -0.005079096 -0.000526059 0.0047615618 -0.009678055 -0.008435406 -0.0032870146 -0.0096874 0.01030622 -0.015873462 0.013122549 -0.0059774877 0.0024270078 -0.013671954 -0.00463581 0.010148246 -0.009181632 -0.014699214 0.0008455487 -0.013517349 -0.0073628533 -0.0020025424 0.0025447353 0.005584704 0.0070335898 0.013774221 -0.01733474 -0.0055071334 -0.019909514 -0.019576803 -0.011534108 0.0039095078 0.015751388 0.010956157 0.005926937 0.01114627 -0.013153866
爸爸 0.013610692 0.015597958 -0.016172888 -0.001191091 0.013223438 -0.0009858966 0.013581742 0.01741196 -0.0010361458 -0.01762441 -0.0064030914 -0.011333457 -0.0009998196 0.003493736 -0.0014389781 -0.012221091 -0.007937527 0.0071284077 -0.01894471 -0.011406045 0.015623063 -0.016052982 -0.0034340192 -0.011679976 -0.015719581 -0.0030897725 0.00090586033 -0.012996583 -0.01692944 -0.014635072 0.0061053215 0.014451715 -0.012786689 -0.007116981 -0.0062682186 -0.0055644643 -0.010226692 -0.017853152 0.0009902124 -0.005715798 -0.006282506 -0.009372604 0.017230958 0.0043937634 -0.003213862 -0.011824405 0.0120674735 0.015581345 -0.01865394 0.01715598
给 0.007934246 -0.016258677 0.010219357 -0.015786644 -0.017868467 -0.015479643 -0.0018146985 0.0048316666 -0.003898954 -0.015397239 -0.0118887955 0.01429503 0.018482795 0.010509708 -0.015793286 0.01284567 0.007805461 0.0007953721 -0.014355347 0.019952195 -0.0023309656 -0.018509306 -0.011884037 -0.0038837204 -0.017147597 -0.0069275303 -0.0010897378 0.017972905 -0.016797623 0.0029205384 0.01679027 0.012374113 0.016874325 -0.012873 0.012084937 0.019303476 -0.007046645 -0.00042817602 0.0012095054 -1.8136478e-05 -0.008193242 0.019055834 0.018924236 -0.0048413784 0.012109911 -0.00406349 0.012166198 0.0037922256 -0.00093113916 -0.015081866
妈妈 0.0061723944 -0.007185186 -0.011303382 -0.012283829 0.019397156 -0.015977519 0.011861384 0.014661816 -0.018832652 0.0034867064 0.003105342 -0.0055923043 0.0066997595 -0.0035627105 -0.002356689 -0.0027237053 0.012071096 0.005159441 -0.0048561045 0.017139742 0.011998081 0.017197527 0.009070609 -0.004261919 0.011175453 -0.0068074805 -0.009087513 -0.002012106 0.018671872 0.0026259734 -0.004624707 -0.0015215672 -0.008489737 0.0065516033 -0.0059900307 0.002227215 -0.0051746727 -0.0073661 0.018820435 -0.006022198 -0.017096173 -0.004746921 0.0015847664 -0.016248655 -0.0078376485 -0.013357825 0.00019666605 0.009193234 0.018903274 -0.004546615
这些 0.014520821 -0.011498624 0.011311086 0.0024924008 0.010372089 0.010157109 0.0012015642 -0.009646869 0.0009580481 0.01292177 0.018868426 0.017214071 -0.012777328 0.0040672272 -0.015888672 0.0067631644 0.01983639 -0.018063346 0.006236912 0.01793778 0.0138523895 -0.0045206705 -0.016026683 0.016928626 0.017110404 0.0032179118 0.019340534 -0.019867413 0.0045366175 -0.01852719 0.01752873 0.0072308783 0.016439738 0.0027426716 -0.016664838 -0.01891409 -0.0066472203 0.009564617 -0.013966538 0.01421133 -0.010348255 -7.868171e-06 -0.011599134 -0.0013247781 -0.0020105117 -0.019849526 0.0029419456 0.0117094945 0.017610572 -0.0069332356
市场 0.0151682105 0.01506136 0.019530995 -0.005048323 0.014060533 0.0024834296 -0.017667094 -0.009198394 0.0068159807 -0.013577584 -0.0026048885 0.011037424 -0.0140723 -6.733732e-05 -0.011399753 0.0013673075 -0.010285583 0.01850957 -0.01693344 0.018586384 0.011643293 0.014089976 0.0139869945 -0.012469015 0.017429795 0.0037667854 0.01858545 0.015099599 0.0031069384 -0.0050148563 -0.015246761 -0.016023038 -0.004490593 0.0125480965 0.00016661955 -0.00073252816 -0.010246983 0.0023440502 0.0055194143 0.019345528 0.009248107 0.004312376 0.016574383 -0.0030021798 0.017401457 -0.005290766 -0.014765939 -0.0031147334 -0.014764383 -0.015372089
那个 0.015240715 0.011740624 -0.0111691775 0.013509027 -0.017203085 -0.008654712 0.008257416 -0.007857775 0.009188009 0.014981719 -0.017373918 -0.019003704 0.017607393 0.00084702397 0.00027096196 -0.0014695075 -0.002648223 0.0075555476 0.003184403 -0.013462555 0.0050855777 0.0067392625 -0.015490949 -0.0049269563 0.0116781555 0.004746794 -0.014532047 -0.018413628 0.0032180722 -0.0015141346 0.018458256 0.00087294175 0.017231144 -0.0114138555 -0.0021126159 -0.014428058 0.002949988 -0.012534382 -0.00031614705 -0.0062262327 -0.012549869 -0.016109299 0.00053956924 0.0178797 -0.012048478 -0.0038240608 -0.011010956 0.0124150105 -0.0033735684 0.01894074
这个 -0.01014558 -0.016856514 0.003303396 0.005973347 0.019730581 0.014849286 0.015293529 0.005381174 -0.0056653125 -0.0028930155 -0.014624241 -0.0027148596 -0.0054163206 -0.018460957 -0.011781814 0.0013816435 -0.005202649 0.019611701 -0.0008698016 0.018340874 0.0064373035 -0.018439427 -0.011966417 0.008238786 0.0020102249 -0.007967934 0.0009508156 0.016101124 -0.0045690755 -0.018289965 -0.0075485846 0.017468058 0.010370993 0.013616604 0.016475622 -0.015207293 -0.008714887 -0.017777573 -0.01980566 0.013515665 0.017515892 -0.013653623 0.009049082 0.0014201113 -0.01731156 0.016683342 0.014976385 0.0028926136 0.00841463 -0.004159037
有营养 0.011815657 -0.0021901657 0.019566765 -0.017545687 -0.013089547 0.018732484 -0.008486614 -0.0075928946 0.011700583 -0.012410625 0.00051582226 -0.008551047 -0.012053664 0.018627506 -0.012057026 -0.01621807 0.0069628507 0.0147148315 -0.014967703 0.008343325 0.0015874143 0.013237082 -0.014922856 0.019047217 0.0047976775 0.013686188 -0.00553781 0.017727695 0.0050109127 -0.014970981 0.016887095 0.011933859 -0.007971694 0.0018450656 -0.004468354 0.0017833451 0.01861928 0.015933594 -0.011365706 0.018871298 -0.002492277 0.008244815 0.010617691 -0.0006643991 -0.0017322314 -0.0017109612 0.014499873 -0.0045299684 -0.008754795 -0.0055329874
和 -0.012253102 -0.0044728382 -0.01539997 -0.016433172 0.009023563 -0.016972326 0.0027267756 0.0111750495 0.008906296 -0.0021200923 -0.01223932 0.017214712 0.013361237 0.0045378804 -0.016498152 -0.018641548 -0.0073597273 -0.013847778 0.01439946 -0.011743614 -0.008637268 0.018912302 0.012598595 -0.011318625 -0.0044938605 0.0006294406 0.0066946936 0.017429192 0.0148171615 0.019052833 -0.01833835 -0.010648564 0.0024117692 -0.01794492 -0.0057985093 -0.013845721 0.017196111 -0.017670674 -0.0140219815 -0.012073207 -0.0140408 0.0028161197 -0.0052947514 0.016518861 -0.009651637 0.001451821 0.0065405695 0.0051565184 0.01193222 -0.012023224
